digraph Tree {
0 [label="Sex <= 0.5000\ngini = 0.437603379017\nsamples = 1104", shape="box"] ;
1 [label="Class_3rd <= 0.5000\ngini = 0.404996712689\nsamples = 234", shape="box"] ;
0 -> 1 ;
2 [label="Class_1st <= 0.5000\ngini = 0.142927990478\nsamples = 142", shape="box"] ;
1 -> 2 ;
3 [label="Age <= 0.5000\ngini = 0.221718316956\nsamples = 63", shape="box"] ;
2 -> 3 ;
4 [label="Class_2nd <= 0.5000\ngini = 0.345679012346\nsamples = 9", shape="box"] ;
3 -> 4 ;
5 [label="gini = 0.0000\nsamples = 1\nvalue = [ 1.  0.]", shape="box"] ;
4 -> 5 ;
6 [label="gini = 0.2188\nsamples = 8\nvalue = [ 1.  7.]", shape="box"] ;
4 -> 6 ;
7 [label="Class_2nd <= 0.5000\ngini = 0.197530864198\nsamples = 54", shape="box"] ;
3 -> 7 ;
8 [label="gini = 0.1800\nsamples = 10\nvalue = [ 1.  9.]", shape="box"] ;
7 -> 8 ;
9 [label="gini = 0.2014\nsamples = 44\nvalue = [  5.  39.]", shape="box"] ;
7 -> 9 ;
10 [label="Age <= 0.5000\ngini = 0.073065213908\nsamples = 79", shape="box"] ;
2 -> 10 ;
11 [label="gini = 0.0000\nsamples = 1\nvalue = [ 0.  1.]", shape="box"] ;
10 -> 11 ;
12 [label="gini = 0.0740\nsamples = 78\nvalue = [  3.  75.]", shape="box"] ;
10 -> 12 ;
13 [label="Age <= 0.5000\ngini = 0.480860113422\nsamples = 92", shape="box"] ;
1 -> 13 ;
14 [label="gini = 0.4844\nsamples = 17\nvalue = [ 10.   7.]", shape="box"] ;
13 -> 14 ;
15 [label="gini = 0.4800\nsamples = 75\nvalue = [ 45.  30.]", shape="box"] ;
13 -> 15 ;
16 [label="Class_1st <= 0.5000\ngini = 0.340095124851\nsamples = 870", shape="box"] ;
0 -> 16 ;
17 [label="Age <= 0.5000\ngini = 0.317831344858\nsamples = 777", shape="box"] ;
16 -> 17 ;
18 [label="Class_3rd <= 0.5000\ngini = 0.482421875\nsamples = 32", shape="box"] ;
17 -> 18 ;
19 [label="gini = 0.2449\nsamples = 7\nvalue = [ 1.  6.]", shape="box"] ;
18 -> 19 ;
20 [label="gini = 0.4032\nsamples = 25\nvalue = [ 18.   7.]", shape="box"] ;
18 -> 20 ;
21 [label="Class_2nd <= 0.5000\ngini = 0.306883473717\nsamples = 745", shape="box"] ;
17 -> 21 ;
22 [label="Class_3rd <= 0.5000\ngini = 0.321085970373\nsamples = 662", shape="box"] ;
21 -> 22 ;
23 [label="gini = 0.3562\nsamples = 427\nvalue = [ 328.   99.]", shape="box"] ;
22 -> 23 ;
24 [label="gini = 0.2475\nsamples = 235\nvalue = [ 201.   34.]", shape="box"] ;
22 -> 24 ;
25 [label="gini = 0.1742\nsamples = 83\nvalue = [ 75.   8.]", shape="box"] ;
21 -> 25 ;
26 [label="Age <= 0.5000\ngini = 0.469418429876\nsamples = 93", shape="box"] ;
16 -> 26 ;
27 [label="gini = 0.0000\nsamples = 4\nvalue = [ 0.  4.]", shape="box"] ;
26 -> 27 ;
28 [label="gini = 0.4540\nsamples = 89\nvalue = [ 58.  31.]", shape="box"] ;
26 -> 28 ;
}